<?xml version="1.0"?>
<opencv_storage>
<cascade>
  <stageType>BOOST</stageType>
  <featureType>HAAR</featureType>
  <height>50</height>
  <width>50</width>
  <stageParams>
    <boostType>GAB</boostType>
    <minHitRate>8.9999997615814209e-01</minHitRate>
    <maxFalseAlarm>5.0000000000000000e-01</maxFalseAlarm>
    <weightTrimRate>9.4999999999999996e-01</weightTrimRate>
    <maxDepth>1</maxDepth>
    <maxWeakCount>100</maxWeakCount></stageParams>
  <featureParams>
    <maxCatCount>0</maxCatCount>
    <featSize>1</featSize>
    <mode>BASIC</mode></featureParams>
  <stageNum>8</stageNum>
  <stages>
    <!-- stage 0 -->
    <_>
      <maxWeakCount>2</maxWeakCount>
      <stageThreshold>-6.0700893402099609e-01</stageThreshold>
      <weakClassifiers>
        <_>
          <internalNodes>
            0 -1 9 -3.4382343292236328e-01</internalNodes>
          <leafValues>
            -9.1154789924621582e-01 5.1851850748062134e-01</leafValues></_>
        <_>
          <internalNodes>
            0 -1 11 -7.8831046819686890e-02</internalNodes>
          <leafValues>
            -9.6150439977645874e-01 3.0453899502754211e-01</leafValues></_></weakClassifiers></_>
    <!-- stage 1 -->
    <_>
      <maxWeakCount>2</maxWeakCount>
      <stageThreshold>-3.8553932309150696e-01</stageThreshold>
      <weakClassifiers>
        <_>
          <internalNodes>
            0 -1 5 -5.2099436521530151e-02</internalNodes>
          <leafValues>
            3.8888889551162720e-01 -8.7714987993240356e-01</leafValues></_>
        <_>
          <internalNodes>
            0 -1 19 1.2170262634754181e-03</internalNodes>
          <leafValues>
            -7.7442818880081177e-01 5.2120637893676758e-01</leafValues></_></weakClassifiers></_>
    <!-- stage 2 -->
    <_>
      <maxWeakCount>2</maxWeakCount>
      <stageThreshold>-5.2367752790451050e-01</stageThreshold>
      <weakClassifiers>
        <_>
          <internalNodes>
            0 -1 4 -1.7615735530853271e-02</internalNodes>
          <leafValues>
            1.2307692319154739e-01 -8.5974025726318359e-01</leafValues></_>
        <_>
          <internalNodes>
            0 -1 2 7.7431909739971161e-03</internalNodes>
          <leafValues>
            -6.4675444364547729e-01 4.2884656786918640e-01</leafValues></_></weakClassifiers></_>
    <!-- stage 3 -->
    <_>
      <maxWeakCount>2</maxWeakCount>
      <stageThreshold>-5.0222843885421753e-01</stageThreshold>
      <weakClassifiers>
        <_>
          <internalNodes>
            0 -1 12 -3.5684891045093536e-02</internalNodes>
          <leafValues>
            8.2608693838119507e-01 -7.5266522169113159e-01</leafValues></_>
        <_>
          <internalNodes>
            0 -1 15 -4.6627588570117950e-02</internalNodes>
          <leafValues>
            2.5043681263923645e-01 -7.9830819368362427e-01</leafValues></_></weakClassifiers></_>
    <!-- stage 4 -->
    <_>
      <maxWeakCount>3</maxWeakCount>
      <stageThreshold>-7.3613631725311279e-01</stageThreshold>
      <weakClassifiers>
        <_>
          <internalNodes>
            0 -1 13 -2.3685055971145630e-01</internalNodes>
          <leafValues>
            6.6666668653488159e-01 -7.2515857219696045e-01</leafValues></_>
        <_>
          <internalNodes>
            0 -1 20 4.3788920156657696e-03</internalNodes>
          <leafValues>
            -6.3055795431137085e-01 4.3559148907661438e-01</leafValues></_>
        <_>
          <internalNodes>
            0 -1 0 -2.7208270505070686e-02</internalNodes>
          <leafValues>
            6.9357430934906006e-01 -4.4656920433044434e-01</leafValues></_></weakClassifiers></_>
    <!-- stage 5 -->
    <_>
      <maxWeakCount>4</maxWeakCount>
      <stageThreshold>-6.0162472724914551e-01</stageThreshold>
      <weakClassifiers>
        <_>
          <internalNodes>
            0 -1 1 -1.4554925262928009e-02</internalNodes>
          <leafValues>
            6.6037738323211670e-01 -7.5757575035095215e-01</leafValues></_>
        <_>
          <internalNodes>
            0 -1 10 5.1250415854156017e-03</internalNodes>
          <leafValues>
            -5.3615641593933105e-01 5.6758642196655273e-01</leafValues></_>
        <_>
          <internalNodes>
            0 -1 8 3.0019775749678956e-06</internalNodes>
          <leafValues>
            3.3950617909431458e-01 -7.0755052566528320e-01</leafValues></_>
        <_>
          <internalNodes>
            0 -1 3 3.1437650322914124e-02</internalNodes>
          <leafValues>
            3.5260125994682312e-01 -7.1421468257904053e-01</leafValues></_></weakClassifiers></_>
    <!-- stage 6 -->
    <_>
      <maxWeakCount>3</maxWeakCount>
      <stageThreshold>-9.4005483388900757e-01</stageThreshold>
      <weakClassifiers>
        <_>
          <internalNodes>
            0 -1 21 3.5955449566245079e-03</internalNodes>
          <leafValues>
            -7.3275864124298096e-01 4.9019607901573181e-01</leafValues></_>
        <_>
          <internalNodes>
            0 -1 17 1.3631875626742840e-02</internalNodes>
          <leafValues>
            -5.3479504585266113e-01 3.8503959774971008e-01</leafValues></_>
        <_>
          <internalNodes>
            0 -1 7 -5.1516378298401833e-03</internalNodes>
          <leafValues>
            3.2749882340431213e-01 -6.8088752031326294e-01</leafValues></_></weakClassifiers></_>
    <!-- stage 7 -->
    <_>
      <maxWeakCount>4</maxWeakCount>
      <stageThreshold>-6.1561483144760132e-01</stageThreshold>
      <weakClassifiers>
        <_>
          <internalNodes>
            0 -1 14 -9.4134062528610229e-03</internalNodes>
          <leafValues>
            -7.0649898052215576e-01 5.7894736528396606e-01</leafValues></_>
        <_>
          <internalNodes>
            0 -1 18 8.6700841784477234e-03</internalNodes>
          <leafValues>
            -6.7915868759155273e-01 2.5375759601593018e-01</leafValues></_>
        <_>
          <internalNodes>
            0 -1 16 4.2059710249304771e-03</internalNodes>
          <leafValues>
            -4.4037079811096191e-01 4.7073015570640564e-01</leafValues></_>
        <_>
          <internalNodes>
            0 -1 6 1.0136915989278350e-05</internalNodes>
          <leafValues>
            2.9931268095970154e-01 -7.1492034196853638e-01</leafValues></_></weakClassifiers></_></stages>
  <features>
    <_>
      <rects>
        <_>
          0 0 46 10 -1.</_>
        <_>
          0 5 46 5 2.</_></rects>
      <tilted>0</tilted></_>
    <_>
      <rects>
        <_>
          0 2 6 38 -1.</_>
        <_>
          0 2 3 19 2.</_>
        <_>
          3 21 3 19 2.</_></rects>
      <tilted>0</tilted></_>
    <_>
      <rects>
        <_>
          0 12 24 10 -1.</_>
        <_>
          0 12 12 5 2.</_>
        <_>
          12 17 12 5 2.</_></rects>
      <tilted>0</tilted></_>
    <_>
      <rects>
        <_>
          0 16 50 26 -1.</_>
        <_>
          25 16 25 26 2.</_></rects>
      <tilted>0</tilted></_>
    <_>
      <rects>
        <_>
          0 33 12 16 -1.</_>
        <_>
          6 33 6 16 2.</_></rects>
      <tilted>0</tilted></_>
    <_>
      <rects>
        <_>
          3 17 46 16 -1.</_>
        <_>
          3 25 46 8 2.</_></rects>
      <tilted>0</tilted></_>
    <_>
      <rects>
        <_>
          3 43 2 6 -1.</_>
        <_>
          4 43 1 6 2.</_></rects>
      <tilted>0</tilted></_>
    <_>
      <rects>
        <_>
          4 22 17 8 -1.</_>
        <_>
          4 26 17 4 2.</_></rects>
      <tilted>0</tilted></_>
    <_>
      <rects>
        <_>
          5 47 2 2 -1.</_>
        <_>
          6 47 1 2 2.</_></rects>
      <tilted>0</tilted></_>
    <_>
      <rects>
        <_>
          7 4 36 36 -1.</_>
        <_>
          7 16 36 12 2.</_></rects>
      <tilted>0</tilted></_>
    <_>
      <rects>
        <_>
          12 13 6 8 -1.</_>
        <_>
          12 17 6 4 2.</_></rects>
      <tilted>0</tilted></_>
    <_>
      <rects>
        <_>
          15 34 21 13 -1.</_>
        <_>
          22 34 7 13 2.</_></rects>
      <tilted>0</tilted></_>
    <_>
      <rects>
        <_>
          17 0 15 12 -1.</_>
        <_>
          17 6 15 6 2.</_></rects>
      <tilted>0</tilted></_>
    <_>
      <rects>
        <_>
          20 1 23 21 -1.</_>
        <_>
          20 8 23 7 2.</_></rects>
      <tilted>0</tilted></_>
    <_>
      <rects>
        <_>
          25 8 2 42 -1.</_>
        <_>
          25 22 2 14 2.</_></rects>
      <tilted>0</tilted></_>
    <_>
      <rects>
        <_>
          27 3 12 46 -1.</_>
        <_>
          27 26 12 23 2.</_></rects>
      <tilted>0</tilted></_>
    <_>
      <rects>
        <_>
          28 0 20 8 -1.</_>
        <_>
          28 0 10 4 2.</_>
        <_>
          38 4 10 4 2.</_></rects>
      <tilted>0</tilted></_>
    <_>
      <rects>
        <_>
          28 4 22 9 -1.</_>
        <_>
          39 4 11 9 2.</_></rects>
      <tilted>0</tilted></_>
    <_>
      <rects>
        <_>
          28 40 22 10 -1.</_>
        <_>
          39 40 11 10 2.</_></rects>
      <tilted>0</tilted></_>
    <_>
      <rects>
        <_>
          42 39 8 5 -1.</_>
        <_>
          46 39 4 5 2.</_></rects>
      <tilted>0</tilted></_>
    <_>
      <rects>
        <_>
          44 35 6 13 -1.</_>
        <_>
          47 35 3 13 2.</_></rects>
      <tilted>0</tilted></_>
    <_>
      <rects>
        <_>
          44 36 1 14 -1.</_>
        <_>
          44 43 1 7 2.</_></rects>
      <tilted>0</tilted></_></features></cascade>
</opencv_storage>
