<?xml version="1.0"?>
<opencv_storage>
<cascade>
  <stageType>BOOST</stageType>
  <featureType>HAAR</featureType>
  <height>64</height>
  <width>64</width>
  <stageParams>
    <boostType>GAB</boostType>
    <minHitRate>9.7000002861022949e-01</minHitRate>
    <maxFalseAlarm>5.0000000000000000e-01</maxFalseAlarm>
    <weightTrimRate>9.4999999999999996e-01</weightTrimRate>
    <maxDepth>1</maxDepth>
    <maxWeakCount>100</maxWeakCount></stageParams>
  <featureParams>
    <maxCatCount>0</maxCatCount>
    <featSize>1</featSize>
    <mode>BASIC</mode></featureParams>
  <stageNum>7</stageNum>
  <stages>
    <!-- stage 0 -->
    <_>
      <maxWeakCount>2</maxWeakCount>
      <stageThreshold>-6.1195619404315948e-02</stageThreshold>
      <weakClassifiers>
        <_>
          <internalNodes>
            0 -1 7 -8.0247881123796105e-04</internalNodes>
          <leafValues>
            -8.7058824300765991e-01 8.0833333730697632e-01</leafValues></_>
        <_>
          <internalNodes>
            0 -1 16 -1.9368471112102270e-04</internalNodes>
          <leafValues>
            -6.8534433841705322e-01 8.0939263105392456e-01</leafValues></_></weakClassifiers></_>
    <!-- stage 1 -->
    <_>
      <maxWeakCount>2</maxWeakCount>
      <stageThreshold>-1.8567495048046112e-01</stageThreshold>
      <weakClassifiers>
        <_>
          <internalNodes>
            0 -1 5 1.3134531909599900e-03</internalNodes>
          <leafValues>
            -8.0360722541809082e-01 6.0159361362457275e-01</leafValues></_>
        <_>
          <internalNodes>
            0 -1 1 -1.6925907693803310e-03</internalNodes>
          <leafValues>
            6.3978785276412964e-01 -7.8726857900619507e-01</leafValues></_></weakClassifiers></_>
    <!-- stage 2 -->
    <_>
      <maxWeakCount>3</maxWeakCount>
      <stageThreshold>-7.2064816951751709e-01</stageThreshold>
      <weakClassifiers>
        <_>
          <internalNodes>
            0 -1 11 -2.0130965276621282e-04</internalNodes>
          <leafValues>
            -8.2315790653228760e-01 5.1272726058959961e-01</leafValues></_>
        <_>
          <internalNodes>
            0 -1 15 -4.7148922458291054e-03</internalNodes>
          <leafValues>
            8.0572450160980225e-01 -5.6471258401870728e-01</leafValues></_>
        <_>
          <internalNodes>
            0 -1 4 7.1260994300246239e-03</internalNodes>
          <leafValues>
            -6.3405525684356689e-01 6.6722232103347778e-01</leafValues></_></weakClassifiers></_>
    <!-- stage 3 -->
    <_>
      <maxWeakCount>3</maxWeakCount>
      <stageThreshold>-7.8229701519012451e-01</stageThreshold>
      <weakClassifiers>
        <_>
          <internalNodes>
            0 -1 14 -1.4440743252635002e-02</internalNodes>
          <leafValues>
            7.8064513206481934e-01 -6.2352943420410156e-01</leafValues></_>
        <_>
          <internalNodes>
            0 -1 12 -8.0245174467563629e-03</internalNodes>
          <leafValues>
            4.5783680677413940e-01 -7.1010071039199829e-01</leafValues></_>
        <_>
          <internalNodes>
            0 -1 8 -1.7501908587291837e-04</internalNodes>
          <leafValues>
            -6.1660444736480713e-01 6.3629108667373657e-01</leafValues></_></weakClassifiers></_>
    <!-- stage 4 -->
    <_>
      <maxWeakCount>3</maxWeakCount>
      <stageThreshold>-5.9128701686859131e-01</stageThreshold>
      <weakClassifiers>
        <_>
          <internalNodes>
            0 -1 9 -3.3945322036743164e-02</internalNodes>
          <leafValues>
            4.3478259444236755e-01 -6.7307692766189575e-01</leafValues></_>
        <_>
          <internalNodes>
            0 -1 3 -1.7663266509771347e-02</internalNodes>
          <leafValues>
            7.1349775791168213e-01 -5.0512534379959106e-01</leafValues></_>
        <_>
          <internalNodes>
            0 -1 6 -8.1150047481060028e-03</internalNodes>
          <leafValues>
            6.4458662271499634e-01 -5.2094429731369019e-01</leafValues></_></weakClassifiers></_>
    <!-- stage 5 -->
    <_>
      <maxWeakCount>3</maxWeakCount>
      <stageThreshold>-9.1026324033737183e-01</stageThreshold>
      <weakClassifiers>
        <_>
          <internalNodes>
            0 -1 13 -3.4817916457541287e-04</internalNodes>
          <leafValues>
            -6.0627180337905884e-01 5.5681818723678589e-01</leafValues></_>
        <_>
          <internalNodes>
            0 -1 17 1.9905855879187584e-04</internalNodes>
          <leafValues>
            -6.6454207897186279e-01 4.8572328686714172e-01</leafValues></_>
        <_>
          <internalNodes>
            0 -1 2 6.0665765777230263e-03</internalNodes>
          <leafValues>
            -8.0253940820693970e-01 4.1986173391342163e-01</leafValues></_></weakClassifiers></_>
    <!-- stage 6 -->
    <_>
      <maxWeakCount>2</maxWeakCount>
      <stageThreshold>-4.1827487945556641e-01</stageThreshold>
      <weakClassifiers>
        <_>
          <internalNodes>
            0 -1 10 -5.3980504162609577e-05</internalNodes>
          <leafValues>
            -7.0018976926803589e-01 5.1173710823059082e-01</leafValues></_>
        <_>
          <internalNodes>
            0 -1 0 -6.4919650554656982e-02</internalNodes>
          <leafValues>
            2.8191486001014709e-01 -9.3343645334243774e-01</leafValues></_></weakClassifiers></_></stages>
  <features>
    <_>
      <rects>
        <_>
          0 18 64 46 -1.</_>
        <_>
          32 18 32 46 2.</_></rects>
      <tilted>0</tilted></_>
    <_>
      <rects>
        <_>
          0 63 24 1 -1.</_>
        <_>
          12 63 12 1 2.</_></rects>
      <tilted>0</tilted></_>
    <_>
      <rects>
        <_>
          1 0 26 18 -1.</_>
        <_>
          1 0 13 9 2.</_>
        <_>
          14 9 13 9 2.</_></rects>
      <tilted>0</tilted></_>
    <_>
      <rects>
        <_>
          2 8 10 45 -1.</_>
        <_>
          7 8 5 45 2.</_></rects>
      <tilted>0</tilted></_>
    <_>
      <rects>
        <_>
          4 1 16 14 -1.</_>
        <_>
          4 1 8 7 2.</_>
        <_>
          12 8 8 7 2.</_></rects>
      <tilted>0</tilted></_>
    <_>
      <rects>
        <_>
          8 12 10 2 -1.</_>
        <_>
          13 12 5 2 2.</_></rects>
      <tilted>0</tilted></_>
    <_>
      <rects>
        <_>
          23 56 26 8 -1.</_>
        <_>
          23 60 26 4 2.</_></rects>
      <tilted>0</tilted></_>
    <_>
      <rects>
        <_>
          25 63 15 1 -1.</_>
        <_>
          30 63 5 1 2.</_></rects>
      <tilted>0</tilted></_>
    <_>
      <rects>
        <_>
          27 63 6 1 -1.</_>
        <_>
          29 63 2 1 2.</_></rects>
      <tilted>0</tilted></_>
    <_>
      <rects>
        <_>
          30 8 32 9 -1.</_>
        <_>
          46 8 16 9 2.</_></rects>
      <tilted>0</tilted></_>
    <_>
      <rects>
        <_>
          31 63 3 1 -1.</_>
        <_>
          32 63 1 1 2.</_></rects>
      <tilted>0</tilted></_>
    <_>
      <rects>
        <_>
          33 63 6 1 -1.</_>
        <_>
          35 63 2 1 2.</_></rects>
      <tilted>0</tilted></_>
    <_>
      <rects>
        <_>
          37 32 26 28 -1.</_>
        <_>
          37 32 13 14 2.</_>
        <_>
          50 46 13 14 2.</_></rects>
      <tilted>0</tilted></_>
    <_>
      <rects>
        <_>
          41 39 6 2 -1.</_>
        <_>
          43 39 2 2 2.</_></rects>
      <tilted>0</tilted></_>
    <_>
      <rects>
        <_>
          42 10 14 8 -1.</_>
        <_>
          49 10 7 8 2.</_></rects>
      <tilted>0</tilted></_>
    <_>
      <rects>
        <_>
          43 9 12 4 -1.</_>
        <_>
          49 9 6 4 2.</_></rects>
      <tilted>0</tilted></_>
    <_>
      <rects>
        <_>
          44 39 3 1 -1.</_>
        <_>
          45 39 1 1 2.</_></rects>
      <tilted>0</tilted></_>
    <_>
      <rects>
        <_>
          58 62 6 2 -1.</_>
        <_>
          61 62 3 2 2.</_></rects>
      <tilted>0</tilted></_></features></cascade>
</opencv_storage>
